<?xml version="1.0"?>
<opencv_storage>
<cascade>
  <stageType>BOOST</stageType>
  <featureType>HAAR</featureType>
  <height>24</height>
  <width>24</width>
  <stageParams>
    <boostType>GAB</boostType>
    <minHitRate>9.9500000476837158e-01</minHitRate>
    <maxFalseAlarm>5.0000000000000000e-01</maxFalseAlarm>
    <weightTrimRate>9.4999999999999996e-01</weightTrimRate>
    <maxDepth>1</maxDepth>
    <maxWeakCount>100</maxWeakCount></stageParams>
  <featureParams>
    <maxCatCount>0</maxCatCount>
    <featSize>1</featSize>
    <mode>BASIC</mode></featureParams>
  <stageNum>4</stageNum>
  <stages>
    <!-- stage 0 -->
    <_>
      <maxWeakCount>4</maxWeakCount>
      <stageThreshold>-1.4029704332351685e+00</stageThreshold>
      <weakClassifiers>
        <_>
          <internalNodes>
            0 -1 6 4.4719497673213482e-03</internalNodes>
          <leafValues>
            -9.1959798336029053e-01 8.2178217172622681e-01</leafValues></_>
        <_>
          <internalNodes>
            0 -1 2 6.1991335824131966e-03</internalNodes>
          <leafValues>
            -7.1449786424636841e-01 7.8487616777420044e-01</leafValues></_>
        <_>
          <internalNodes>
            0 -1 7 -1.2239102274179459e-02</internalNodes>
          <leafValues>
            6.7824757099151611e-01 -6.2470006942749023e-01</leafValues></_>
        <_>
          <internalNodes>
            0 -1 12 -4.7448240220546722e-03</internalNodes>
          <leafValues>
            8.5582542419433594e-01 -5.8839732408523560e-01</leafValues></_></weakClassifiers></_>
    <!-- stage 1 -->
    <_>
      <maxWeakCount>5</maxWeakCount>
      <stageThreshold>-1.2308375835418701e+00</stageThreshold>
      <weakClassifiers>
        <_>
          <internalNodes>
            0 -1 6 5.8291461318731308e-03</internalNodes>
          <leafValues>
            -8.7234044075012207e-01 5.7142859697341919e-01</leafValues></_>
        <_>
          <internalNodes>
            0 -1 3 -6.7007318139076233e-03</internalNodes>
          <leafValues>
            5.4940509796142578e-01 -8.3282846212387085e-01</leafValues></_>
        <_>
          <internalNodes>
            0 -1 10 -1.0259293019771576e-02</internalNodes>
          <leafValues>
            4.0606722235679626e-01 -8.6251330375671387e-01</leafValues></_>
        <_>
          <internalNodes>
            0 -1 4 -1.1770899407565594e-02</internalNodes>
          <leafValues>
            8.4108906984329224e-01 -5.1282531023025513e-01</leafValues></_>
        <_>
          <internalNodes>
            0 -1 0 -1.4065817231312394e-03</internalNodes>
          <leafValues>
            -7.7131420373916626e-01 5.8108937740325928e-01</leafValues></_></weakClassifiers></_>
    <!-- stage 2 -->
    <_>
      <maxWeakCount>4</maxWeakCount>
      <stageThreshold>-2.6072463393211365e-01</stageThreshold>
      <weakClassifiers>
        <_>
          <internalNodes>
            0 -1 5 2.7901763096451759e-03</internalNodes>
          <leafValues>
            -7.4774771928787231e-01 8.4615385532379150e-01</leafValues></_>
        <_>
          <internalNodes>
            0 -1 8 -3.9342842064797878e-03</internalNodes>
          <leafValues>
            4.2522677779197693e-01 -8.5731124877929688e-01</leafValues></_>
        <_>
          <internalNodes>
            0 -1 9 1.5158231835812330e-03</internalNodes>
          <leafValues>
            -8.1473922729492188e-01 5.1051014661788940e-01</leafValues></_>
        <_>
          <internalNodes>
            0 -1 11 8.1793628633022308e-03</internalNodes>
          <leafValues>
            -4.4871380925178528e-01 1.</leafValues></_></weakClassifiers></_>
    <!-- stage 3 -->
    <_>
      <maxWeakCount>1</maxWeakCount>
      <stageThreshold>1.</stageThreshold>
      <weakClassifiers>
        <_>
          <internalNodes>
            0 -1 1 -2.2003348916769028e-02</internalNodes>
          <leafValues>
            -1. 1.</leafValues></_></weakClassifiers></_></stages>
  <features>
    <_>
      <rects>
        <_>
          0 9 9 13 -1.</_>
        <_>
          3 9 3 13 3.</_></rects>
      <tilted>0</tilted></_>
    <_>
      <rects>
        <_>
          7 13 8 3 -1.</_>
        <_>
          11 13 4 3 2.</_></rects>
      <tilted>0</tilted></_>
    <_>
      <rects>
        <_>
          8 10 3 4 -1.</_>
        <_>
          9 10 1 4 3.</_></rects>
      <tilted>0</tilted></_>
    <_>
      <rects>
        <_>
          9 10 1 8 -1.</_>
        <_>
          9 14 1 4 2.</_></rects>
      <tilted>0</tilted></_>
    <_>
      <rects>
        <_>
          10 8 3 7 -1.</_>
        <_>
          11 8 1 7 3.</_></rects>
      <tilted>0</tilted></_>
    <_>
      <rects>
        <_>
          11 11 2 1 -1.</_>
        <_>
          12 11 1 1 2.</_></rects>
      <tilted>0</tilted></_>
    <_>
      <rects>
        <_>
          11 11 3 2 -1.</_>
        <_>
          12 11 1 2 3.</_></rects>
      <tilted>0</tilted></_>
    <_>
      <rects>
        <_>
          12 10 1 10 -1.</_>
        <_>
          12 15 1 5 2.</_></rects>
      <tilted>0</tilted></_>
    <_>
      <rects>
        <_>
          12 11 1 6 -1.</_>
        <_>
          12 14 1 3 2.</_></rects>
      <tilted>0</tilted></_>
    <_>
      <rects>
        <_>
          13 11 6 3 -1.</_>
        <_>
          15 11 2 3 3.</_></rects>
      <tilted>0</tilted></_>
    <_>
      <rects>
        <_>
          15 9 2 10 -1.</_>
        <_>
          15 14 2 5 2.</_></rects>
      <tilted>0</tilted></_>
    <_>
      <rects>
        <_>
          19 18 2 6 -1.</_>
        <_>
          19 20 2 2 3.</_></rects>
      <tilted>0</tilted></_>
    <_>
      <rects>
        <_>
          22 8 2 12 -1.</_>
        <_>
          22 8 1 6 2.</_>
        <_>
          23 14 1 6 2.</_></rects>
      <tilted>0</tilted></_></features></cascade>
</opencv_storage>
